digraph Tree {
node [shape=box] ;
0 [label="X[30] <= 0.5\ngini = 0.374\nsamples = 36177\nvalue = [27174, 9003]"] ;
1 [label="X[2] <= 0.77\ngini = 0.127\nsamples = 19306\nvalue = [17995, 1311]"] ;
0 -> 1 [labeldistance=2.5, labelangle=45, headlabel="True"] ;
2 [label="X[1] <= 0.767\ngini = 0.097\nsamples = 18946\nvalue = [17981, 965]"] ;
1 -> 2 ;
3 [label="X[3] <= 0.92\ngini = 0.048\nsamples = 15065\nvalue = [14693, 372]"] ;
2 -> 3 ;
4 [label="X[4] <= 0.403\ngini = 0.045\nsamples = 15001\nvalue = [14658, 343]"] ;
3 -> 4 ;
5 [label="X[0] <= 0.226\ngini = 0.027\nsamples = 12229\nvalue = [12061, 168]"] ;
4 -> 5 ;
6 [label="X[29] <= 0.5\ngini = 0.007\nsamples = 7088\nvalue = [7063, 25]"] ;
5 -> 6 ;
7 [label="X[0] <= 0.158\ngini = 0.006\nsamples = 7076\nvalue = [7054, 22]"] ;
6 -> 7 ;
8 [label="X[1] <= 0.633\ngini = 0.003\nsamples = 5649\nvalue = [5641, 8]"] ;
7 -> 8 ;
9 [label="X[45] <= 0.5\ngini = 0.002\nsamples = 5291\nvalue = [5286, 5]"] ;
8 -> 9 ;
10 [label="gini = 0.002\nsamples = 5211\nvalue = [5207, 4]"] ;
9 -> 10 ;
11 [label="gini = 0.025\nsamples = 80\nvalue = [79, 1]"] ;
9 -> 11 ;
12 [label="X[0] <= 0.13\ngini = 0.017\nsamples = 358\nvalue = [355, 3]"] ;
8 -> 12 ;
13 [label="gini = 0.007\nsamples = 286\nvalue = [285, 1]"] ;
12 -> 13 ;
14 [label="gini = 0.054\nsamples = 72\nvalue = [70, 2]"] ;
12 -> 14 ;
15 [label="X[2] <= 0.731\ngini = 0.019\nsamples = 1427\nvalue = [1413, 14]"] ;
7 -> 15 ;
16 [label="X[8] <= 0.5\ngini = 0.018\nsamples = 1421\nvalue = [1408, 13]"] ;
15 -> 16 ;
17 [label="gini = 0.017\nsamples = 1412\nvalue = [1400, 12]"] ;
16 -> 17 ;
18 [label="gini = 0.198\nsamples = 9\nvalue = [8, 1]"] ;
16 -> 18 ;
19 [label="gini = 0.278\nsamples = 6\nvalue = [5, 1]"] ;
15 -> 19 ;
20 [label="X[0] <= 0.164\ngini = 0.375\nsamples = 12\nvalue = [9, 3]"] ;
6 -> 20 ;
21 [label="gini = 0.444\nsamples = 6\nvalue = [4, 2]"] ;
20 -> 21 ;
22 [label="gini = 0.278\nsamples = 6\nvalue = [5, 1]"] ;
20 -> 22 ;
23 [label="X[44] <= 0.5\ngini = 0.054\nsamples = 5141\nvalue = [4998, 143]"] ;
5 -> 23 ;
24 [label="X[2] <= 0.735\ngini = 0.046\nsamples = 4878\nvalue = [4764, 114]"] ;
23 -> 24 ;
25 [label="X[38] <= 0.5\ngini = 0.043\nsamples = 4845\nvalue = [4738, 107]"] ;
24 -> 25 ;
26 [label="X[45] <= 0.5\ngini = 0.035\nsamples = 4450\nvalue = [4370, 80]"] ;
25 -> 26 ;
27 [label="gini = 0.033\nsamples = 4366\nvalue = [4293, 73]"] ;
26 -> 27 ;
28 [label="gini = 0.153\nsamples = 84\nvalue = [77, 7]"] ;
26 -> 28 ;
29 [label="X[7] <= 0.5\ngini = 0.127\nsamples = 395\nvalue = [368, 27]"] ;
25 -> 29 ;
30 [label="gini = 0.06\nsamples = 129\nvalue = [125, 4]"] ;
29 -> 30 ;
31 [label="gini = 0.158\nsamples = 266\nvalue = [243, 23]"] ;
29 -> 31 ;
32 [label="X[2] <= 0.743\ngini = 0.334\nsamples = 33\nvalue = [26, 7]"] ;
24 -> 32 ;
33 [label="gini = 0.48\nsamples = 10\nvalue = [4, 6]"] ;
32 -> 33 ;
34 [label="X[0] <= 0.562\ngini = 0.083\nsamples = 23\nvalue = [22, 1]"] ;
32 -> 34 ;
35 [label="gini = 0.0\nsamples = 17\nvalue = [17, 0]"] ;
34 -> 35 ;
36 [label="gini = 0.278\nsamples = 6\nvalue = [5, 1]"] ;
34 -> 36 ;
37 [label="X[56] <= 0.5\ngini = 0.196\nsamples = 263\nvalue = [234, 29]"] ;
23 -> 37 ;
38 [label="X[4] <= 0.362\ngini = 0.177\nsamples = 255\nvalue = [230, 25]"] ;
37 -> 38 ;
39 [label="X[4] <= 0.128\ngini = 0.053\nsamples = 73\nvalue = [71, 2]"] ;
38 -> 39 ;
40 [label="gini = 0.408\nsamples = 7\nvalue = [5, 2]"] ;
39 -> 40 ;
41 [label="gini = 0.0\nsamples = 66\nvalue = [66, 0]"] ;
39 -> 41 ;
42 [label="X[10] <= 0.5\ngini = 0.221\nsamples = 182\nvalue = [159, 23]"] ;
38 -> 42 ;
43 [label="gini = 0.246\nsamples = 160\nvalue = [137, 23]"] ;
42 -> 43 ;
44 [label="gini = 0.0\nsamples = 22\nvalue = [22, 0]"] ;
42 -> 44 ;
45 [label="gini = 0.5\nsamples = 8\nvalue = [4, 4]"] ;
37 -> 45 ;
46 [label="X[0] <= 0.158\ngini = 0.118\nsamples = 2772\nvalue = [2597, 175]"] ;
4 -> 46 ;
47 [label="X[38] <= 0.5\ngini = 0.037\nsamples = 855\nvalue = [839, 16]"] ;
46 -> 47 ;
48 [label="X[56] <= 0.5\ngini = 0.023\nsamples = 783\nvalue = [774, 9]"] ;
47 -> 48 ;
49 [label="X[6] <= 0.5\ngini = 0.018\nsamples = 766\nvalue = [759, 7]"] ;
48 -> 49 ;
50 [label="X[17] <= 0.5\ngini = 0.013\nsamples = 741\nvalue = [736, 5]"] ;
49 -> 50 ;
51 [label="gini = 0.011\nsamples = 727\nvalue = [723, 4]"] ;
50 -> 51 ;
52 [label="gini = 0.133\nsamples = 14\nvalue = [13, 1]"] ;
50 -> 52 ;
53 [label="X[0] <= 0.11\ngini = 0.147\nsamples = 25\nvalue = [23, 2]"] ;
49 -> 53 ;
54 [label="gini = 0.0\nsamples = 18\nvalue = [18, 0]"] ;
53 -> 54 ;
55 [label="gini = 0.408\nsamples = 7\nvalue = [5, 2]"] ;
53 -> 55 ;
56 [label="X[100] <= 0.5\ngini = 0.208\nsamples = 17\nvalue = [15, 2]"] ;
48 -> 56 ;
57 [label="gini = 0.0\nsamples = 10\nvalue = [10, 0]"] ;
56 -> 57 ;
58 [label="gini = 0.408\nsamples = 7\nvalue = [5, 2]"] ;
56 -> 58 ;
59 [label="X[4] <= 0.592\ngini = 0.176\nsamples = 72\nvalue = [65, 7]"] ;
47 -> 59 ;
60 [label="X[28] <= 0.5\ngini = 0.035\nsamples = 56\nvalue = [55, 1]"] ;
59 -> 60 ;
61 [label="gini = 0.0\nsamples = 49\nvalue = [49, 0]"] ;
60 -> 61 ;
62 [label="gini = 0.245\nsamples = 7\nvalue = [6, 1]"] ;
60 -> 62 ;
63 [label="X[27] <= 0.5\ngini = 0.469\nsamples = 16\nvalue = [10, 6]"] ;
59 -> 63 ;
64 [label="gini = 0.494\nsamples = 9\nvalue = [4, 5]"] ;
63 -> 64 ;
65 [label="gini = 0.245\nsamples = 7\nvalue = [6, 1]"] ;
63 -> 65 ;
66 [label="X[2] <= 0.734\ngini = 0.152\nsamples = 1917\nvalue = [1758, 159]"] ;
46 -> 66 ;
67 [label="X[1] <= 0.567\ngini = 0.146\nsamples = 1892\nvalue = [1742, 150]"] ;
66 -> 67 ;
68 [label="X[61] <= 0.5\ngini = 0.102\nsamples = 1052\nvalue = [995, 57]"] ;
67 -> 68 ;
69 [label="X[4] <= 0.597\ngini = 0.036\nsamples = 384\nvalue = [377, 7]"] ;
68 -> 69 ;
70 [label="gini = 0.013\nsamples = 308\nvalue = [306, 2]"] ;
69 -> 70 ;
71 [label="gini = 0.123\nsamples = 76\nvalue = [71, 5]"] ;
69 -> 71 ;
72 [label="X[0] <= 0.473\ngini = 0.138\nsamples = 668\nvalue = [618, 50]"] ;
68 -> 72 ;
73 [label="gini = 0.113\nsamples = 567\nvalue = [533, 34]"] ;
72 -> 73 ;
74 [label="gini = 0.267\nsamples = 101\nvalue = [85, 16]"] ;
72 -> 74 ;
75 [label="X[4] <= 0.857\ngini = 0.197\nsamples = 840\nvalue = [747, 93]"] ;
67 -> 75 ;
76 [label="X[0] <= 0.404\ngini = 0.191\nsamples = 832\nvalue = [743, 89]"] ;
75 -> 76 ;
77 [label="gini = 0.164\nsamples = 631\nvalue = [574, 57]"] ;
76 -> 77 ;
78 [label="gini = 0.268\nsamples = 201\nvalue = [169, 32]"] ;
76 -> 78 ;
79 [label="gini = 0.5\nsamples = 8\nvalue = [4, 4]"] ;
75 -> 79 ;
80 [label="X[2] <= 0.743\ngini = 0.461\nsamples = 25\nvalue = [16, 9]"] ;
66 -> 80 ;
81 [label="gini = 0.198\nsamples = 9\nvalue = [1, 8]"] ;
80 -> 81 ;
82 [label="X[61] <= 0.5\ngini = 0.117\nsamples = 16\nvalue = [15, 1]"] ;
80 -> 82 ;
83 [label="gini = 0.0\nsamples = 10\nvalue = [10, 0]"] ;
82 -> 83 ;
84 [label="gini = 0.278\nsamples = 6\nvalue = [5, 1]"] ;
82 -> 84 ;
85 [label="X[3] <= 0.959\ngini = 0.496\nsamples = 64\nvalue = [35, 29]"] ;
3 -> 85 ;
86 [label="X[3] <= 0.928\ngini = 0.499\nsamples = 56\nvalue = [27, 29]"] ;
85 -> 86 ;
87 [label="X[3] <= 0.924\ngini = 0.444\nsamples = 39\nvalue = [26, 13]"] ;
86 -> 87 ;
88 [label="X[0] <= 0.281\ngini = 0.5\nsamples = 26\nvalue = [13, 13]"] ;
87 -> 88 ;
89 [label="gini = 0.32\nsamples = 10\nvalue = [8, 2]"] ;
88 -> 89 ;
90 [label="X[0] <= 0.411\ngini = 0.43\nsamples = 16\nvalue = [5, 11]"] ;
88 -> 90 ;
91 [label="gini = 0.494\nsamples = 9\nvalue = [4, 5]"] ;
90 -> 91 ;
92 [label="gini = 0.245\nsamples = 7\nvalue = [1, 6]"] ;
90 -> 92 ;
93 [label="gini = 0.0\nsamples = 13\nvalue = [13, 0]"] ;
87 -> 93 ;
94 [label="X[0] <= 0.459\ngini = 0.111\nsamples = 17\nvalue = [1, 16]"] ;
86 -> 94 ;
95 [label="gini = 0.0\nsamples = 11\nvalue = [0, 11]"] ;
94 -> 95 ;
96 [label="gini = 0.278\nsamples = 6\nvalue = [1, 5]"] ;
94 -> 96 ;
97 [label="gini = 0.0\nsamples = 8\nvalue = [8, 0]"] ;
85 -> 97 ;
98 [label="X[0] <= 0.199\ngini = 0.259\nsamples = 3881\nvalue = [3288, 593]"] ;
2 -> 98 ;
99 [label="X[3] <= 0.919\ngini = 0.095\nsamples = 1655\nvalue = [1572, 83]"] ;
98 -> 99 ;
100 [label="X[4] <= 0.49\ngini = 0.088\nsamples = 1645\nvalue = [1569, 76]"] ;
99 -> 100 ;
101 [label="X[2] <= 0.735\ngini = 0.049\nsamples = 1323\nvalue = [1290, 33]"] ;
100 -> 101 ;
102 [label="X[3] <= 0.875\ngini = 0.046\nsamples = 1315\nvalue = [1284, 31]"] ;
101 -> 102 ;
103 [label="X[8] <= 0.5\ngini = 0.041\nsamples = 1286\nvalue = [1259, 27]"] ;
102 -> 103 ;
104 [label="X[91] <= 0.5\ngini = 0.037\nsamples = 1267\nvalue = [1243, 24]"] ;
103 -> 104 ;
105 [label="gini = 0.034\nsamples = 1256\nvalue = [1234, 22]"] ;
104 -> 105 ;
106 [label="gini = 0.298\nsamples = 11\nvalue = [9, 2]"] ;
104 -> 106 ;
107 [label="X[50] <= 0.5\ngini = 0.266\nsamples = 19\nvalue = [16, 3]"] ;
103 -> 107 ;
108 [label="gini = 0.0\nsamples = 11\nvalue = [11, 0]"] ;
107 -> 108 ;
109 [label="gini = 0.469\nsamples = 8\nvalue = [5, 3]"] ;
107 -> 109 ;
110 [label="X[3] <= 0.88\ngini = 0.238\nsamples = 29\nvalue = [25, 4]"] ;
102 -> 110 ;
111 [label="gini = 0.5\nsamples = 8\nvalue = [4, 4]"] ;
110 -> 111 ;
112 [label="gini = 0.0\nsamples = 21\nvalue = [21, 0]"] ;
110 -> 112 ;
113 [label="gini = 0.375\nsamples = 8\nvalue = [6, 2]"] ;
101 -> 113 ;
114 [label="X[0] <= 0.144\ngini = 0.231\nsamples = 322\nvalue = [279, 43]"] ;
100 -> 114 ;
115 [label="X[4] <= 0.582\ngini = 0.09\nsamples = 169\nvalue = [161, 8]"] ;
114 -> 115 ;
116 [label="X[6] <= 0.5\ngini = 0.035\nsamples = 112\nvalue = [110, 2]"] ;
115 -> 116 ;
117 [label="X[0] <= 0.13\ngini = 0.019\nsamples = 102\nvalue = [101, 1]"] ;
116 -> 117 ;
118 [label="gini = 0.0\nsamples = 73\nvalue = [73, 0]"] ;
117 -> 118 ;
119 [label="gini = 0.067\nsamples = 29\nvalue = [28, 1]"] ;
117 -> 119 ;
120 [label="gini = 0.18\nsamples = 10\nvalue = [9, 1]"] ;
116 -> 120 ;
121 [label="X[7] <= 0.5\ngini = 0.188\nsamples = 57\nvalue = [51, 6]"] ;
115 -> 121 ;
122 [label="gini = 0.0\nsamples = 13\nvalue = [13, 0]"] ;
121 -> 122 ;
123 [label="X[0] <= 0.089\ngini = 0.236\nsamples = 44\nvalue = [38, 6]"] ;
121 -> 123 ;
124 [label="gini = 0.0\nsamples = 10\nvalue = [10, 0]"] ;
123 -> 124 ;
125 [label="gini = 0.291\nsamples = 34\nvalue = [28, 6]"] ;
123 -> 125 ;
126 [label="X[56] <= 0.5\ngini = 0.353\nsamples = 153\nvalue = [118, 35]"] ;
114 -> 126 ;
127 [label="X[5] <= 0.5\ngini = 0.334\nsamples = 146\nvalue = [115, 31]"] ;
126 -> 127 ;
128 [label="X[46] <= 0.5\ngini = 0.313\nsamples = 139\nvalue = [112, 27]"] ;
127 -> 128 ;
129 [label="gini = 0.278\nsamples = 114\nvalue = [95, 19]"] ;
128 -> 129 ;
130 [label="gini = 0.435\nsamples = 25\nvalue = [17, 8]"] ;
128 -> 130 ;
131 [label="gini = 0.49\nsamples = 7\nvalue = [3, 4]"] ;
127 -> 131 ;
132 [label="gini = 0.49\nsamples = 7\nvalue = [3, 4]"] ;
126 -> 132 ;
133 [label="gini = 0.42\nsamples = 10\nvalue = [3, 7]"] ;
99 -> 133 ;
134 [label="X[4] <= 0.423\ngini = 0.353\nsamples = 2226\nvalue = [1716, 510]"] ;
98 -> 134 ;
135 [label="X[3] <= 0.927\ngini = 0.257\nsamples = 1399\nvalue = [1187, 212]"] ;
134 -> 135 ;
136 [label="X[1] <= 0.9\ngini = 0.247\nsamples = 1387\nvalue = [1187, 200]"] ;
135 -> 136 ;
137 [label="X[2] <= 0.734\ngini = 0.219\nsamples = 1283\nvalue = [1122, 161]"] ;
136 -> 137 ;
138 [label="X[4] <= 0.372\ngini = 0.212\nsamples = 1263\nvalue = [1111, 152]"] ;
137 -> 138 ;
139 [label="X[31] <= 0.5\ngini = 0.114\nsamples = 330\nvalue = [310, 20]"] ;
138 -> 139 ;
140 [label="gini = 0.096\nsamples = 317\nvalue = [301, 16]"] ;
139 -> 140 ;
141 [label="gini = 0.426\nsamples = 13\nvalue = [9, 4]"] ;
139 -> 141 ;
142 [label="X[0] <= 0.404\ngini = 0.243\nsamples = 933\nvalue = [801, 132]"] ;
138 -> 142 ;
143 [label="gini = 0.199\nsamples = 659\nvalue = [585, 74]"] ;
142 -> 143 ;
144 [label="gini = 0.334\nsamples = 274\nvalue = [216, 58]"] ;
142 -> 144 ;
145 [label="X[2] <= 0.743\ngini = 0.495\nsamples = 20\nvalue = [11, 9]"] ;
137 -> 145 ;
146 [label="gini = 0.298\nsamples = 11\nvalue = [2, 9]"] ;
145 -> 146 ;
147 [label="gini = 0.0\nsamples = 9\nvalue = [9, 0]"] ;
145 -> 147 ;
148 [label="X[61] <= 0.5\ngini = 0.469\nsamples = 104\nvalue = [65, 39]"] ;
136 -> 148 ;
149 [label="X[1] <= 0.967\ngini = 0.324\nsamples = 54\nvalue = [43, 11]"] ;
148 -> 149 ;
150 [label="X[0] <= 0.411\ngini = 0.137\nsamples = 27\nvalue = [25, 2]"] ;
149 -> 150 ;
151 [label="gini = 0.231\nsamples = 15\nvalue = [13, 2]"] ;
150 -> 151 ;
152 [label="gini = 0.0\nsamples = 12\nvalue = [12, 0]"] ;
150 -> 152 ;
153 [label="X[7] <= 0.5\ngini = 0.444\nsamples = 27\nvalue = [18, 9]"] ;
149 -> 153 ;
154 [label="gini = 0.495\nsamples = 20\nvalue = [11, 9]"] ;
153 -> 154 ;
155 [label="gini = 0.0\nsamples = 7\nvalue = [7, 0]"] ;
153 -> 155 ;
156 [label="X[4] <= 0.388\ngini = 0.493\nsamples = 50\nvalue = [22, 28]"] ;
148 -> 156 ;
157 [label="X[32] <= 0.5\ngini = 0.444\nsamples = 15\nvalue = [10, 5]"] ;
156 -> 157 ;
158 [label="gini = 0.49\nsamples = 7\nvalue = [3, 4]"] ;
157 -> 158 ;
159 [label="gini = 0.219\nsamples = 8\nvalue = [7, 1]"] ;
157 -> 159 ;
160 [label="X[0] <= 0.507\ngini = 0.451\nsamples = 35\nvalue = [12, 23]"] ;
156 -> 160 ;
161 [label="gini = 0.4\nsamples = 29\nvalue = [8, 21]"] ;
160 -> 161 ;
162 [label="gini = 0.444\nsamples = 6\nvalue = [4, 2]"] ;
160 -> 162 ;
163 [label="gini = 0.0\nsamples = 12\nvalue = [0, 12]"] ;
135 -> 163 ;
164 [label="X[1] <= 0.9\ngini = 0.461\nsamples = 827\nvalue = [529, 298]"] ;
134 -> 164 ;
165 [label="X[38] <= 0.5\ngini = 0.436\nsamples = 730\nvalue = [496, 234]"] ;
164 -> 165 ;
166 [label="X[3] <= 0.924\ngini = 0.378\nsamples = 505\nvalue = [377, 128]"] ;
165 -> 166 ;
167 [label="X[45] <= 0.5\ngini = 0.371\nsamples = 499\nvalue = [376, 123]"] ;
166 -> 167 ;
168 [label="X[46] <= 0.5\ngini = 0.364\nsamples = 485\nvalue = [369, 116]"] ;
167 -> 168 ;
169 [label="gini = 0.34\nsamples = 382\nvalue = [299, 83]"] ;
168 -> 169 ;
170 [label="gini = 0.435\nsamples = 103\nvalue = [70, 33]"] ;
168 -> 170 ;
171 [label="X[0] <= 0.281\ngini = 0.5\nsamples = 14\nvalue = [7, 7]"] ;
167 -> 171 ;
172 [label="gini = 0.444\nsamples = 6\nvalue = [4, 2]"] ;
171 -> 172 ;
173 [label="gini = 0.469\nsamples = 8\nvalue = [3, 5]"] ;
171 -> 173 ;
174 [label="gini = 0.278\nsamples = 6\nvalue = [1, 5]"] ;
166 -> 174 ;
175 [label="X[3] <= 0.909\ngini = 0.498\nsamples = 225\nvalue = [119, 106]"] ;
165 -> 175 ;
176 [label="X[0] <= 0.336\ngini = 0.495\nsamples = 217\nvalue = [119, 98]"] ;
175 -> 176 ;
177 [label="X[24] <= 0.5\ngini = 0.461\nsamples = 108\nvalue = [69, 39]"] ;
176 -> 177 ;
178 [label="gini = 0.403\nsamples = 75\nvalue = [54, 21]"] ;
177 -> 178 ;
179 [label="gini = 0.496\nsamples = 33\nvalue = [15, 18]"] ;
177 -> 179 ;
180 [label="X[9] <= 0.5\ngini = 0.497\nsamples = 109\nvalue = [50, 59]"] ;
176 -> 180 ;
181 [label="gini = 0.481\nsamples = 97\nvalue = [39, 58]"] ;
180 -> 181 ;
182 [label="gini = 0.153\nsamples = 12\nvalue = [11, 1]"] ;
180 -> 182 ;
183 [label="gini = 0.0\nsamples = 8\nvalue = [0, 8]"] ;
175 -> 183 ;
184 [label="X[3] <= 0.439\ngini = 0.449\nsamples = 97\nvalue = [33, 64]"] ;
164 -> 184 ;
185 [label="X[2] <= 0.304\ngini = 0.475\nsamples = 85\nvalue = [33, 52]"] ;
184 -> 185 ;
186 [label="X[1] <= 0.967\ngini = 0.458\nsamples = 79\nvalue = [28, 51]"] ;
185 -> 186 ;
187 [label="X[50] <= 0.5\ngini = 0.375\nsamples = 40\nvalue = [10, 30]"] ;
186 -> 187 ;
188 [label="gini = 0.408\nsamples = 7\nvalue = [5, 2]"] ;
187 -> 188 ;
189 [label="gini = 0.257\nsamples = 33\nvalue = [5, 28]"] ;
187 -> 189 ;
190 [label="X[0] <= 0.349\ngini = 0.497\nsamples = 39\nvalue = [18, 21]"] ;
186 -> 190 ;
191 [label="gini = 0.426\nsamples = 13\nvalue = [9, 4]"] ;
190 -> 191 ;
192 [label="gini = 0.453\nsamples = 26\nvalue = [9, 17]"] ;
190 -> 192 ;
193 [label="gini = 0.278\nsamples = 6\nvalue = [5, 1]"] ;
185 -> 193 ;
194 [label="gini = 0.0\nsamples = 12\nvalue = [0, 12]"] ;
184 -> 194 ;
195 [label="X[2] <= 0.784\ngini = 0.075\nsamples = 360\nvalue = [14, 346]"] ;
1 -> 195 ;
196 [label="X[2] <= 0.774\ngini = 0.48\nsamples = 25\nvalue = [10, 15]"] ;
195 -> 196 ;
197 [label="gini = 0.0\nsamples = 13\nvalue = [0, 13]"] ;
196 -> 197 ;
198 [label="X[0] <= 0.377\ngini = 0.278\nsamples = 12\nvalue = [10, 2]"] ;
196 -> 198 ;
199 [label="gini = 0.0\nsamples = 6\nvalue = [6, 0]"] ;
198 -> 199 ;
200 [label="gini = 0.444\nsamples = 6\nvalue = [4, 2]"] ;
198 -> 200 ;
201 [label="X[0] <= 0.075\ngini = 0.024\nsamples = 335\nvalue = [4, 331]"] ;
195 -> 201 ;
202 [label="gini = 0.42\nsamples = 10\nvalue = [3, 7]"] ;
201 -> 202 ;
203 [label="X[9] <= 0.5\ngini = 0.006\nsamples = 325\nvalue = [1, 324]"] ;
201 -> 203 ;
204 [label="gini = 0.0\nsamples = 292\nvalue = [0, 292]"] ;
203 -> 204 ;
205 [label="X[0] <= 0.514\ngini = 0.059\nsamples = 33\nvalue = [1, 32]"] ;
203 -> 205 ;
206 [label="gini = 0.0\nsamples = 26\nvalue = [0, 26]"] ;
205 -> 206 ;
207 [label="gini = 0.245\nsamples = 7\nvalue = [1, 6]"] ;
205 -> 207 ;
208 [label="X[1] <= 0.767\ngini = 0.496\nsamples = 16871\nvalue = [9179, 7692]"] ;
0 -> 208 [labeldistance=2.5, labelangle=-45, headlabel="False"] ;
209 [label="X[2] <= 0.741\ngini = 0.449\nsamples = 11857\nvalue = [7826, 4031]"] ;
208 -> 209 ;
210 [label="X[1] <= 0.5\ngini = 0.425\nsamples = 11271\nvalue = [7814, 3457]"] ;
209 -> 210 ;
211 [label="X[4] <= 0.403\ngini = 0.195\nsamples = 1840\nvalue = [1638, 202]"] ;
210 -> 211 ;
212 [label="X[0] <= 0.281\ngini = 0.151\nsamples = 1361\nvalue = [1249, 112]"] ;
211 -> 212 ;
213 [label="X[56] <= 0.5\ngini = 0.057\nsamples = 474\nvalue = [460, 14]"] ;
212 -> 213 ;
214 [label="X[37] <= 0.5\ngini = 0.05\nsamples = 464\nvalue = [452, 12]"] ;
213 -> 214 ;
215 [label="X[69] <= 0.5\ngini = 0.026\nsamples = 304\nvalue = [300, 4]"] ;
214 -> 215 ;
216 [label="X[14] <= 0.5\ngini = 0.02\nsamples = 297\nvalue = [294, 3]"] ;
215 -> 216 ;
217 [label="gini = 0.007\nsamples = 266\nvalue = [265, 1]"] ;
216 -> 217 ;
218 [label="gini = 0.121\nsamples = 31\nvalue = [29, 2]"] ;
216 -> 218 ;
219 [label="gini = 0.245\nsamples = 7\nvalue = [6, 1]"] ;
215 -> 219 ;
220 [label="X[0] <= 0.171\ngini = 0.095\nsamples = 160\nvalue = [152, 8]"] ;
214 -> 220 ;
221 [label="X[0] <= 0.158\ngini = 0.16\nsamples = 57\nvalue = [52, 5]"] ;
220 -> 221 ;
222 [label="gini = 0.113\nsamples = 50\nvalue = [47, 3]"] ;
221 -> 222 ;
223 [label="gini = 0.408\nsamples = 7\nvalue = [5, 2]"] ;
221 -> 223 ;
224 [label="X[1] <= 0.3\ngini = 0.057\nsamples = 103\nvalue = [100, 3]"] ;
220 -> 224 ;
225 [label="gini = 0.0\nsamples = 40\nvalue = [40, 0]"] ;
224 -> 225 ;
226 [label="gini = 0.091\nsamples = 63\nvalue = [60, 3]"] ;
224 -> 226 ;
227 [label="gini = 0.32\nsamples = 10\nvalue = [8, 2]"] ;
213 -> 227 ;
228 [label="X[1] <= 0.3\ngini = 0.197\nsamples = 887\nvalue = [789, 98]"] ;
212 -> 228 ;
229 [label="X[46] <= 0.5\ngini = 0.124\nsamples = 497\nvalue = [464, 33]"] ;
228 -> 229 ;
230 [label="X[4] <= 0.393\ngini = 0.111\nsamples = 476\nvalue = [448, 28]"] ;
229 -> 230 ;
231 [label="X[39] <= 0.5\ngini = 0.016\nsamples = 123\nvalue = [122, 1]"] ;
230 -> 231 ;
232 [label="gini = 0.0\nsamples = 105\nvalue = [105, 0]"] ;
231 -> 232 ;
233 [label="gini = 0.105\nsamples = 18\nvalue = [17, 1]"] ;
231 -> 233 ;
234 [label="X[54] <= 0.5\ngini = 0.141\nsamples = 353\nvalue = [326, 27]"] ;
230 -> 234 ;
235 [label="gini = 0.128\nsamples = 336\nvalue = [313, 23]"] ;
234 -> 235 ;
236 [label="gini = 0.36\nsamples = 17\nvalue = [13, 4]"] ;
234 -> 236 ;
237 [label="X[0] <= 0.596\ngini = 0.363\nsamples = 21\nvalue = [16, 5]"] ;
229 -> 237 ;
238 [label="X[7] <= 0.5\ngini = 0.245\nsamples = 14\nvalue = [12, 2]"] ;
237 -> 238 ;
239 [label="gini = 0.408\nsamples = 7\nvalue = [5, 2]"] ;
238 -> 239 ;
240 [label="gini = 0.0\nsamples = 7\nvalue = [7, 0]"] ;
238 -> 240 ;
241 [label="gini = 0.49\nsamples = 7\nvalue = [4, 3]"] ;
237 -> 241 ;
242 [label="X[3] <= 0.895\ngini = 0.278\nsamples = 390\nvalue = [325, 65]"] ;
228 -> 242 ;
243 [label="X[0] <= 0.295\ngini = 0.265\nsamples = 382\nvalue = [322, 60]"] ;
242 -> 243 ;
244 [label="gini = 0.5\nsamples = 10\nvalue = [5, 5]"] ;
243 -> 244 ;
245 [label="X[0] <= 0.651\ngini = 0.252\nsamples = 372\nvalue = [317, 55]"] ;
243 -> 245 ;
246 [label="gini = 0.274\nsamples = 330\nvalue = [276, 54]"] ;
245 -> 246 ;
247 [label="gini = 0.046\nsamples = 42\nvalue = [41, 1]"] ;
245 -> 247 ;
248 [label="gini = 0.469\nsamples = 8\nvalue = [3, 5]"] ;
242 -> 248 ;
249 [label="X[38] <= 0.5\ngini = 0.305\nsamples = 479\nvalue = [389, 90]"] ;
211 -> 249 ;
250 [label="X[42] <= 0.5\ngini = 0.276\nsamples = 441\nvalue = [368, 73]"] ;
249 -> 250 ;
251 [label="X[0] <= 0.363\ngini = 0.291\nsamples = 413\nvalue = [340, 73]"] ;
250 -> 251 ;
252 [label="X[4] <= 0.597\ngini = 0.228\nsamples = 198\nvalue = [172, 26]"] ;
251 -> 252 ;
253 [label="X[0] <= 0.185\ngini = 0.268\nsamples = 138\nvalue = [116, 22]"] ;
252 -> 253 ;
254 [label="gini = 0.13\nsamples = 43\nvalue = [40, 3]"] ;
253 -> 254 ;
255 [label="gini = 0.32\nsamples = 95\nvalue = [76, 19]"] ;
253 -> 255 ;
256 [label="X[48] <= 0.5\ngini = 0.124\nsamples = 60\nvalue = [56, 4]"] ;
252 -> 256 ;
257 [label="gini = 0.042\nsamples = 47\nvalue = [46, 1]"] ;
256 -> 257 ;
258 [label="gini = 0.355\nsamples = 13\nvalue = [10, 3]"] ;
256 -> 258 ;
259 [label="X[4] <= 0.556\ngini = 0.342\nsamples = 215\nvalue = [168, 47]"] ;
251 -> 259 ;
260 [label="X[48] <= 0.5\ngini = 0.291\nsamples = 153\nvalue = [126, 27]"] ;
259 -> 260 ;
261 [label="gini = 0.238\nsamples = 123\nvalue = [106, 17]"] ;
260 -> 261 ;
262 [label="gini = 0.444\nsamples = 30\nvalue = [20, 10]"] ;
260 -> 262 ;
263 [label="X[0] <= 0.5\ngini = 0.437\nsamples = 62\nvalue = [42, 20]"] ;
259 -> 263 ;
264 [label="gini = 0.487\nsamples = 31\nvalue = [18, 13]"] ;
263 -> 264 ;
265 [label="gini = 0.35\nsamples = 31\nvalue = [24, 7]"] ;
263 -> 265 ;
266 [label="gini = 0.0\nsamples = 28\nvalue = [28, 0]"] ;
250 -> 266 ;
267 [label="X[0] <= 0.541\ngini = 0.494\nsamples = 38\nvalue = [21, 17]"] ;
249 -> 267 ;
268 [label="X[0] <= 0.349\ngini = 0.469\nsamples = 32\nvalue = [20, 12]"] ;
267 -> 268 ;
269 [label="gini = 0.32\nsamples = 10\nvalue = [8, 2]"] ;
268 -> 269 ;
270 [label="X[4] <= 0.526\ngini = 0.496\nsamples = 22\nvalue = [12, 10]"] ;
268 -> 270 ;
271 [label="X[1] <= 0.3\ngini = 0.444\nsamples = 12\nvalue = [8, 4]"] ;
270 -> 271 ;
272 [label="gini = 0.444\nsamples = 6\nvalue = [4, 2]"] ;
271 -> 272 ;
273 [label="gini = 0.444\nsamples = 6\nvalue = [4, 2]"] ;
271 -> 273 ;
274 [label="gini = 0.48\nsamples = 10\nvalue = [4, 6]"] ;
270 -> 274 ;
275 [label="gini = 0.278\nsamples = 6\nvalue = [1, 5]"] ;
267 -> 275 ;
276 [label="X[3] <= 0.893\ngini = 0.452\nsamples = 9431\nvalue = [6176, 3255]"] ;
210 -> 276 ;
277 [label="X[0] <= 0.253\ngini = 0.44\nsamples = 9046\nvalue = [6091, 2955]"] ;
276 -> 277 ;
278 [label="X[0] <= 0.144\ngini = 0.343\nsamples = 3035\nvalue = [2367, 668]"] ;
277 -> 278 ;
279 [label="X[44] <= 0.5\ngini = 0.215\nsamples = 867\nvalue = [761, 106]"] ;
278 -> 279 ;
280 [label="X[0] <= 0.103\ngini = 0.201\nsamples = 840\nvalue = [745, 95]"] ;
279 -> 280 ;
281 [label="X[4] <= 0.454\ngini = 0.106\nsamples = 374\nvalue = [353, 21]"] ;
280 -> 281 ;
282 [label="gini = 0.07\nsamples = 305\nvalue = [294, 11]"] ;
281 -> 282 ;
283 [label="gini = 0.248\nsamples = 69\nvalue = [59, 10]"] ;
281 -> 283 ;
284 [label="X[6] <= 0.5\ngini = 0.267\nsamples = 466\nvalue = [392, 74]"] ;
280 -> 284 ;
285 [label="gini = 0.253\nsamples = 445\nvalue = [379, 66]"] ;
284 -> 285 ;
286 [label="gini = 0.472\nsamples = 21\nvalue = [13, 8]"] ;
284 -> 286 ;
287 [label="X[0] <= 0.13\ngini = 0.483\nsamples = 27\nvalue = [16, 11]"] ;
279 -> 287 ;
288 [label="X[49] <= 0.5\ngini = 0.388\nsamples = 19\nvalue = [14, 5]"] ;
287 -> 288 ;
289 [label="gini = 0.494\nsamples = 9\nvalue = [5, 4]"] ;
288 -> 289 ;
290 [label="gini = 0.18\nsamples = 10\nvalue = [9, 1]"] ;
288 -> 290 ;
291 [label="gini = 0.375\nsamples = 8\nvalue = [2, 6]"] ;
287 -> 291 ;
292 [label="X[23] <= 0.5\ngini = 0.384\nsamples = 2168\nvalue = [1606, 562]"] ;
278 -> 292 ;
293 [label="X[38] <= 0.5\ngini = 0.444\nsamples = 952\nvalue = [636, 316]"] ;
292 -> 293 ;
294 [label="X[44] <= 0.5\ngini = 0.426\nsamples = 835\nvalue = [578, 257]"] ;
293 -> 294 ;
295 [label="gini = 0.415\nsamples = 763\nvalue = [539, 224]"] ;
294 -> 295 ;
296 [label="gini = 0.497\nsamples = 72\nvalue = [39, 33]"] ;
294 -> 296 ;
297 [label="X[4] <= 0.367\ngini = 0.5\nsamples = 117\nvalue = [58, 59]"] ;
293 -> 297 ;
298 [label="gini = 0.278\nsamples = 6\nvalue = [1, 5]"] ;
297 -> 298 ;
299 [label="gini = 0.5\nsamples = 111\nvalue = [57, 54]"] ;
297 -> 299 ;
300 [label="X[4] <= 0.485\ngini = 0.323\nsamples = 1216\nvalue = [970, 246]"] ;
292 -> 300 ;
301 [label="X[38] <= 0.5\ngini = 0.289\nsamples = 917\nvalue = [756, 161]"] ;
300 -> 301 ;
302 [label="gini = 0.273\nsamples = 865\nvalue = [724, 141]"] ;
301 -> 302 ;
303 [label="gini = 0.473\nsamples = 52\nvalue = [32, 20]"] ;
301 -> 303 ;
304 [label="X[6] <= 0.5\ngini = 0.407\nsamples = 299\nvalue = [214, 85]"] ;
300 -> 304 ;
305 [label="gini = 0.395\nsamples = 288\nvalue = [210, 78]"] ;
304 -> 305 ;
306 [label="gini = 0.463\nsamples = 11\nvalue = [4, 7]"] ;
304 -> 306 ;
307 [label="X[23] <= 0.5\ngini = 0.471\nsamples = 6011\nvalue = [3724, 2287]"] ;
277 -> 307 ;
308 [label="X[9] <= 0.5\ngini = 0.497\nsamples = 2650\nvalue = [1433, 1217]"] ;
307 -> 308 ;
309 [label="X[38] <= 0.5\ngini = 0.5\nsamples = 2293\nvalue = [1178, 1115]"] ;
308 -> 309 ;
310 [label="X[4] <= 0.352\ngini = 0.495\nsamples = 1871\nvalue = [1025, 846]"] ;
309 -> 310 ;
311 [label="gini = 0.387\nsamples = 179\nvalue = [132, 47]"] ;
310 -> 311 ;
312 [label="gini = 0.498\nsamples = 1692\nvalue = [893, 799]"] ;
310 -> 312 ;
313 [label="X[0] <= 0.637\ngini = 0.462\nsamples = 422\nvalue = [153, 269]"] ;
309 -> 313 ;
314 [label="gini = 0.451\nsamples = 401\nvalue = [138, 263]"] ;
313 -> 314 ;
315 [label="gini = 0.408\nsamples = 21\nvalue = [15, 6]"] ;
313 -> 315 ;
316 [label="X[39] <= 0.5\ngini = 0.408\nsamples = 357\nvalue = [255, 102]"] ;
308 -> 316 ;
317 [label="X[37] <= 0.5\ngini = 0.428\nsamples = 287\nvalue = [198, 89]"] ;
316 -> 317 ;
318 [label="gini = 0.454\nsamples = 212\nvalue = [138, 74]"] ;
317 -> 318 ;
319 [label="gini = 0.32\nsamples = 75\nvalue = [60, 15]"] ;
317 -> 319 ;
320 [label="X[1] <= 0.633\ngini = 0.302\nsamples = 70\nvalue = [57, 13]"] ;
316 -> 320 ;
321 [label="gini = 0.19\nsamples = 47\nvalue = [42, 5]"] ;
320 -> 321 ;
322 [label="gini = 0.454\nsamples = 23\nvalue = [15, 8]"] ;
320 -> 322 ;
323 [label="X[4] <= 0.352\ngini = 0.434\nsamples = 3361\nvalue = [2291, 1070]"] ;
307 -> 323 ;
324 [label="X[54] <= 0.5\ngini = 0.243\nsamples = 416\nvalue = [357, 59]"] ;
323 -> 324 ;
325 [label="X[4] <= 0.342\ngini = 0.185\nsamples = 319\nvalue = [286, 33]"] ;
324 -> 325 ;
326 [label="gini = 0.133\nsamples = 252\nvalue = [234, 18]"] ;
325 -> 326 ;
327 [label="gini = 0.348\nsamples = 67\nvalue = [52, 15]"] ;
325 -> 327 ;
328 [label="X[38] <= 0.5\ngini = 0.392\nsamples = 97\nvalue = [71, 26]"] ;
324 -> 328 ;
329 [label="gini = 0.346\nsamples = 90\nvalue = [70, 20]"] ;
328 -> 329 ;
330 [label="gini = 0.245\nsamples = 7\nvalue = [1, 6]"] ;
328 -> 330 ;
331 [label="X[9] <= 0.5\ngini = 0.451\nsamples = 2945\nvalue = [1934, 1011]"] ;
323 -> 331 ;
332 [label="X[38] <= 0.5\ngini = 0.462\nsamples = 2559\nvalue = [1632, 927]"] ;
331 -> 332 ;
333 [label="gini = 0.451\nsamples = 2305\nvalue = [1512, 793]"] ;
332 -> 333 ;
334 [label="gini = 0.498\nsamples = 254\nvalue = [120, 134]"] ;
332 -> 334 ;
335 [label="X[2] <= 0.699\ngini = 0.341\nsamples = 386\nvalue = [302, 84]"] ;
331 -> 335 ;
336 [label="gini = 0.349\nsamples = 373\nvalue = [289, 84]"] ;
335 -> 336 ;
337 [label="gini = 0.0\nsamples = 13\nvalue = [13, 0]"] ;
335 -> 337 ;
338 [label="X[3] <= 0.907\ngini = 0.344\nsamples = 385\nvalue = [85, 300]"] ;
276 -> 338 ;
339 [label="X[0] <= 0.144\ngini = 0.073\nsamples = 290\nvalue = [11, 279]"] ;
338 -> 339 ;
340 [label="gini = 0.32\nsamples = 10\nvalue = [2, 8]"] ;
339 -> 340 ;
341 [label="X[3] <= 0.901\ngini = 0.062\nsamples = 280\nvalue = [9, 271]"] ;
339 -> 341 ;
342 [label="X[0] <= 0.596\ngini = 0.015\nsamples = 135\nvalue = [1, 134]"] ;
341 -> 342 ;
343 [label="gini = 0.0\nsamples = 129\nvalue = [0, 129]"] ;
342 -> 343 ;
344 [label="gini = 0.278\nsamples = 6\nvalue = [1, 5]"] ;
342 -> 344 ;
345 [label="X[41] <= 0.5\ngini = 0.104\nsamples = 145\nvalue = [8, 137]"] ;
341 -> 345 ;
346 [label="X[20] <= 0.5\ngini = 0.083\nsamples = 139\nvalue = [6, 133]"] ;
345 -> 346 ;
347 [label="gini = 0.061\nsamples = 128\nvalue = [4, 124]"] ;
346 -> 347 ;
348 [label="gini = 0.298\nsamples = 11\nvalue = [2, 9]"] ;
346 -> 348 ;
349 [label="gini = 0.444\nsamples = 6\nvalue = [2, 4]"] ;
345 -> 349 ;
350 [label="X[3] <= 0.916\ngini = 0.344\nsamples = 95\nvalue = [74, 21]"] ;
338 -> 350 ;
351 [label="gini = 0.0\nsamples = 52\nvalue = [52, 0]"] ;
350 -> 351 ;
352 [label="X[38] <= 0.5\ngini = 0.5\nsamples = 43\nvalue = [22, 21]"] ;
350 -> 352 ;
353 [label="X[3] <= 0.928\ngini = 0.48\nsamples = 35\nvalue = [21, 14]"] ;
352 -> 353 ;
354 [label="X[0] <= 0.411\ngini = 0.386\nsamples = 23\nvalue = [17, 6]"] ;
353 -> 354 ;
355 [label="gini = 0.0\nsamples = 11\nvalue = [11, 0]"] ;
354 -> 355 ;
356 [label="gini = 0.5\nsamples = 12\nvalue = [6, 6]"] ;
354 -> 356 ;
357 [label="X[27] <= 0.5\ngini = 0.444\nsamples = 12\nvalue = [4, 8]"] ;
353 -> 357 ;
358 [label="gini = 0.5\nsamples = 6\nvalue = [3, 3]"] ;
357 -> 358 ;
359 [label="gini = 0.278\nsamples = 6\nvalue = [1, 5]"] ;
357 -> 359 ;
360 [label="gini = 0.219\nsamples = 8\nvalue = [1, 7]"] ;
352 -> 360 ;
361 [label="X[0] <= 0.596\ngini = 0.04\nsamples = 586\nvalue = [12, 574]"] ;
209 -> 361 ;
362 [label="X[100] <= 0.5\ngini = 0.008\nsamples = 521\nvalue = [2, 519]"] ;
361 -> 362 ;
363 [label="X[0] <= 0.336\ngini = 0.153\nsamples = 24\nvalue = [2, 22]"] ;
362 -> 363 ;
364 [label="gini = 0.408\nsamples = 7\nvalue = [2, 5]"] ;
363 -> 364 ;
365 [label="gini = 0.0\nsamples = 17\nvalue = [0, 17]"] ;
363 -> 365 ;
366 [label="gini = 0.0\nsamples = 497\nvalue = [0, 497]"] ;
362 -> 366 ;
367 [label="X[2] <= 0.805\ngini = 0.26\nsamples = 65\nvalue = [10, 55]"] ;
361 -> 367 ;
368 [label="X[2] <= 0.8\ngini = 0.368\nsamples = 37\nvalue = [9, 28]"] ;
367 -> 368 ;
369 [label="X[2] <= 0.769\ngini = 0.175\nsamples = 31\nvalue = [3, 28]"] ;
368 -> 369 ;
370 [label="X[2] <= 0.762\ngini = 0.337\nsamples = 14\nvalue = [3, 11]"] ;
369 -> 370 ;
371 [label="gini = 0.0\nsamples = 7\nvalue = [0, 7]"] ;
370 -> 371 ;
372 [label="gini = 0.49\nsamples = 7\nvalue = [3, 4]"] ;
370 -> 372 ;
373 [label="gini = 0.0\nsamples = 17\nvalue = [0, 17]"] ;
369 -> 373 ;
374 [label="gini = 0.0\nsamples = 6\nvalue = [6, 0]"] ;
368 -> 374 ;
375 [label="X[0] <= 0.61\ngini = 0.069\nsamples = 28\nvalue = [1, 27]"] ;
367 -> 375 ;
376 [label="gini = 0.278\nsamples = 6\nvalue = [1, 5]"] ;
375 -> 376 ;
377 [label="gini = 0.0\nsamples = 22\nvalue = [0, 22]"] ;
375 -> 377 ;
378 [label="X[2] <= 0.741\ngini = 0.394\nsamples = 5014\nvalue = [1353, 3661]"] ;
208 -> 378 ;
379 [label="X[3] <= 0.893\ngini = 0.434\nsamples = 4246\nvalue = [1351, 2895]"] ;
378 -> 379 ;
380 [label="X[4] <= 0.311\ngini = 0.456\nsamples = 3796\nvalue = [1338, 2458]"] ;
379 -> 380 ;
381 [label="X[60] <= 0.5\ngini = 0.473\nsamples = 294\nvalue = [181, 113]"] ;
380 -> 381 ;
382 [label="X[1] <= 0.9\ngini = 0.404\nsamples = 210\nvalue = [151, 59]"] ;
381 -> 382 ;
383 [label="X[0] <= 0.363\ngini = 0.357\nsamples = 176\nvalue = [135, 41]"] ;
382 -> 383 ;
384 [label="X[4] <= 0.158\ngini = 0.175\nsamples = 62\nvalue = [56, 6]"] ;
383 -> 384 ;
385 [label="gini = 0.42\nsamples = 10\nvalue = [7, 3]"] ;
384 -> 385 ;
386 [label="X[0] <= 0.212\ngini = 0.109\nsamples = 52\nvalue = [49, 3]"] ;
384 -> 386 ;
387 [label="gini = 0.0\nsamples = 28\nvalue = [28, 0]"] ;
386 -> 387 ;
388 [label="gini = 0.219\nsamples = 24\nvalue = [21, 3]"] ;
386 -> 388 ;
389 [label="X[0] <= 0.692\ngini = 0.426\nsamples = 114\nvalue = [79, 35]"] ;
383 -> 389 ;
390 [label="X[0] <= 0.664\ngini = 0.463\nsamples = 85\nvalue = [54, 31]"] ;
389 -> 390 ;
391 [label="gini = 0.438\nsamples = 68\nvalue = [46, 22]"] ;
390 -> 391 ;
392 [label="gini = 0.498\nsamples = 17\nvalue = [8, 9]"] ;
390 -> 392 ;
393 [label="X[4] <= 0.102\ngini = 0.238\nsamples = 29\nvalue = [25, 4]"] ;
389 -> 393 ;
394 [label="gini = 0.49\nsamples = 7\nvalue = [4, 3]"] ;
393 -> 394 ;
395 [label="gini = 0.087\nsamples = 22\nvalue = [21, 1]"] ;
393 -> 395 ;
396 [label="X[0] <= 0.397\ngini = 0.498\nsamples = 34\nvalue = [16, 18]"] ;
382 -> 396 ;
397 [label="gini = 0.0\nsamples = 6\nvalue = [0, 6]"] ;
396 -> 397 ;
398 [label="X[0] <= 0.664\ngini = 0.49\nsamples = 28\nvalue = [16, 12]"] ;
396 -> 398 ;
399 [label="X[4] <= 0.148\ngini = 0.494\nsamples = 18\nvalue = [8, 10]"] ;
398 -> 399 ;
400 [label="gini = 0.278\nsamples = 6\nvalue = [1, 5]"] ;
399 -> 400 ;
401 [label="gini = 0.486\nsamples = 12\nvalue = [7, 5]"] ;
399 -> 401 ;
402 [label="gini = 0.32\nsamples = 10\nvalue = [8, 2]"] ;
398 -> 402 ;
403 [label="X[0] <= 0.226\ngini = 0.459\nsamples = 84\nvalue = [30, 54]"] ;
381 -> 403 ;
404 [label="X[4] <= 0.148\ngini = 0.5\nsamples = 24\nvalue = [12, 12]"] ;
403 -> 404 ;
405 [label="gini = 0.408\nsamples = 7\nvalue = [5, 2]"] ;
404 -> 405 ;
406 [label="X[0] <= 0.158\ngini = 0.484\nsamples = 17\nvalue = [7, 10]"] ;
404 -> 406 ;
407 [label="gini = 0.245\nsamples = 7\nvalue = [1, 6]"] ;
406 -> 407 ;
408 [label="gini = 0.48\nsamples = 10\nvalue = [6, 4]"] ;
406 -> 408 ;
409 [label="X[0] <= 0.445\ngini = 0.42\nsamples = 60\nvalue = [18, 42]"] ;
403 -> 409 ;
410 [label="X[6] <= 0.5\ngini = 0.346\nsamples = 45\nvalue = [10, 35]"] ;
409 -> 410 ;
411 [label="X[4] <= 0.173\ngini = 0.295\nsamples = 39\nvalue = [7, 32]"] ;
410 -> 411 ;
412 [label="gini = 0.0\nsamples = 11\nvalue = [0, 11]"] ;
411 -> 412 ;
413 [label="gini = 0.375\nsamples = 28\nvalue = [7, 21]"] ;
411 -> 413 ;
414 [label="gini = 0.5\nsamples = 6\nvalue = [3, 3]"] ;
410 -> 414 ;
415 [label="X[0] <= 0.541\ngini = 0.498\nsamples = 15\nvalue = [8, 7]"] ;
409 -> 415 ;
416 [label="gini = 0.444\nsamples = 6\nvalue = [4, 2]"] ;
415 -> 416 ;
417 [label="gini = 0.494\nsamples = 9\nvalue = [4, 5]"] ;
415 -> 417 ;
418 [label="X[0] <= 0.158\ngini = 0.442\nsamples = 3502\nvalue = [1157, 2345]"] ;
380 -> 418 ;
419 [label="X[0] <= 0.116\ngini = 0.483\nsamples = 240\nvalue = [142, 98]"] ;
418 -> 419 ;
420 [label="X[4] <= 0.434\ngini = 0.369\nsamples = 78\nvalue = [59, 19]"] ;
419 -> 420 ;
421 [label="X[7] <= 0.5\ngini = 0.233\nsamples = 52\nvalue = [45, 7]"] ;
420 -> 421 ;
422 [label="gini = 0.42\nsamples = 10\nvalue = [7, 3]"] ;
421 -> 422 ;
423 [label="X[4] <= 0.362\ngini = 0.172\nsamples = 42\nvalue = [38, 4]"] ;
421 -> 423 ;
424 [label="gini = 0.444\nsamples = 6\nvalue = [4, 2]"] ;
423 -> 424 ;
425 [label="gini = 0.105\nsamples = 36\nvalue = [34, 2]"] ;
423 -> 425 ;
426 [label="X[0] <= 0.103\ngini = 0.497\nsamples = 26\nvalue = [14, 12]"] ;
420 -> 426 ;
427 [label="gini = 0.375\nsamples = 12\nvalue = [9, 3]"] ;
426 -> 427 ;
428 [label="X[44] <= 0.5\ngini = 0.459\nsamples = 14\nvalue = [5, 9]"] ;
426 -> 428 ;
429 [label="gini = 0.375\nsamples = 8\nvalue = [2, 6]"] ;
428 -> 429 ;
430 [label="gini = 0.5\nsamples = 6\nvalue = [3, 3]"] ;
428 -> 430 ;
431 [label="X[61] <= 0.5\ngini = 0.5\nsamples = 162\nvalue = [83, 79]"] ;
419 -> 431 ;
432 [label="X[59] <= 0.5\ngini = 0.4\nsamples = 29\nvalue = [8, 21]"] ;
431 -> 432 ;
433 [label="gini = 0.375\nsamples = 8\nvalue = [6, 2]"] ;
432 -> 433 ;
434 [label="X[4] <= 0.423\ngini = 0.172\nsamples = 21\nvalue = [2, 19]"] ;
432 -> 434 ;
435 [label="gini = 0.278\nsamples = 12\nvalue = [2, 10]"] ;
434 -> 435 ;
436 [label="gini = 0.0\nsamples = 9\nvalue = [0, 9]"] ;
434 -> 436 ;
437 [label="X[46] <= 0.5\ngini = 0.492\nsamples = 133\nvalue = [75, 58]"] ;
431 -> 437 ;
438 [label="X[0] <= 0.144\ngini = 0.474\nsamples = 109\nvalue = [67, 42]"] ;
437 -> 438 ;
439 [label="gini = 0.44\nsamples = 52\nvalue = [35, 17]"] ;
438 -> 439 ;
440 [label="gini = 0.492\nsamples = 57\nvalue = [32, 25]"] ;
438 -> 440 ;
441 [label="X[4] <= 0.49\ngini = 0.444\nsamples = 24\nvalue = [8, 16]"] ;
437 -> 441 ;
442 [label="gini = 0.337\nsamples = 14\nvalue = [3, 11]"] ;
441 -> 442 ;
443 [label="gini = 0.5\nsamples = 10\nvalue = [5, 5]"] ;
441 -> 443 ;
444 [label="X[2] <= 0.699\ngini = 0.429\nsamples = 3262\nvalue = [1015, 2247]"] ;
418 -> 444 ;
445 [label="X[3] <= 0.426\ngini = 0.423\nsamples = 3211\nvalue = [975, 2236]"] ;
444 -> 445 ;
446 [label="X[38] <= 0.5\ngini = 0.418\nsamples = 3179\nvalue = [946, 2233]"] ;
445 -> 446 ;
447 [label="X[44] <= 0.5\ngini = 0.442\nsamples = 2267\nvalue = [748, 1519]"] ;
446 -> 447 ;
448 [label="gini = 0.48\nsamples = 1053\nvalue = [421, 632]"] ;
447 -> 448 ;
449 [label="gini = 0.394\nsamples = 1214\nvalue = [327, 887]"] ;
447 -> 449 ;
450 [label="X[9] <= 0.5\ngini = 0.34\nsamples = 912\nvalue = [198, 714]"] ;
446 -> 450 ;
451 [label="gini = 0.319\nsamples = 843\nvalue = [168, 675]"] ;
450 -> 451 ;
452 [label="gini = 0.491\nsamples = 69\nvalue = [30, 39]"] ;
450 -> 452 ;
453 [label="X[3] <= 0.875\ngini = 0.17\nsamples = 32\nvalue = [29, 3]"] ;
445 -> 453 ;
454 [label="gini = 0.397\nsamples = 11\nvalue = [8, 3]"] ;
453 -> 454 ;
455 [label="gini = 0.0\nsamples = 21\nvalue = [21, 0]"] ;
453 -> 455 ;
456 [label="X[2] <= 0.73\ngini = 0.338\nsamples = 51\nvalue = [40, 11]"] ;
444 -> 456 ;
457 [label="X[2] <= 0.725\ngini = 0.464\nsamples = 30\nvalue = [19, 11]"] ;
456 -> 457 ;
458 [label="gini = 0.0\nsamples = 18\nvalue = [18, 0]"] ;
457 -> 458 ;
459 [label="X[4] <= 0.485\ngini = 0.153\nsamples = 12\nvalue = [1, 11]"] ;
457 -> 459 ;
460 [label="gini = 0.278\nsamples = 6\nvalue = [1, 5]"] ;
459 -> 460 ;
461 [label="gini = 0.0\nsamples = 6\nvalue = [0, 6]"] ;
459 -> 461 ;
462 [label="gini = 0.0\nsamples = 21\nvalue = [21, 0]"] ;
456 -> 462 ;
463 [label="X[3] <= 0.907\ngini = 0.056\nsamples = 450\nvalue = [13, 437]"] ;
379 -> 463 ;
464 [label="X[5] <= 0.5\ngini = 0.005\nsamples = 381\nvalue = [1, 380]"] ;
463 -> 464 ;
465 [label="gini = 0.0\nsamples = 367\nvalue = [0, 367]"] ;
464 -> 465 ;
466 [label="X[0] <= 0.336\ngini = 0.133\nsamples = 14\nvalue = [1, 13]"] ;
464 -> 466 ;
467 [label="gini = 0.0\nsamples = 8\nvalue = [0, 8]"] ;
466 -> 467 ;
468 [label="gini = 0.278\nsamples = 6\nvalue = [1, 5]"] ;
466 -> 468 ;
469 [label="X[3] <= 0.919\ngini = 0.287\nsamples = 69\nvalue = [12, 57]"] ;
463 -> 469 ;
470 [label="gini = 0.165\nsamples = 11\nvalue = [10, 1]"] ;
469 -> 470 ;
471 [label="X[24] <= 0.5\ngini = 0.067\nsamples = 58\nvalue = [2, 56]"] ;
469 -> 471 ;
472 [label="gini = 0.0\nsamples = 40\nvalue = [0, 40]"] ;
471 -> 472 ;
473 [label="X[0] <= 0.493\ngini = 0.198\nsamples = 18\nvalue = [2, 16]"] ;
471 -> 473 ;
474 [label="gini = 0.0\nsamples = 12\nvalue = [0, 12]"] ;
473 -> 474 ;
475 [label="gini = 0.444\nsamples = 6\nvalue = [2, 4]"] ;
473 -> 475 ;
476 [label="X[39] <= 0.5\ngini = 0.005\nsamples = 768\nvalue = [2, 766]"] ;
378 -> 476 ;
477 [label="X[0] <= 0.856\ngini = 0.003\nsamples = 762\nvalue = [1, 761]"] ;
476 -> 477 ;
478 [label="gini = 0.0\nsamples = 755\nvalue = [0, 755]"] ;
477 -> 478 ;
479 [label="gini = 0.245\nsamples = 7\nvalue = [1, 6]"] ;
477 -> 479 ;
480 [label="gini = 0.278\nsamples = 6\nvalue = [1, 5]"] ;
476 -> 480 ;
}